//Numpy array shape [5, 4, 4]
//Min -0.476562500000
//Max 0.497070312500
//Number of zeros 0

#ifndef W11_H_
#define W11_H_

#ifndef __SYNTHESIS__
weight11_t w11[80];
#else
weight11_t w11[80] = {-0.42529296875, -0.30517578125, -0.29687500000, 0.26660156250, -0.03613281250, -0.15136718750, -0.02099609375, -0.29003906250, 0.18994140625, 0.02636718750, 0.38574218750, 0.04882812500, 0.01806640625, 0.12158203125, 0.02880859375, 0.14501953125, 0.04833984375, 0.41601562500, -0.10986328125, -0.02929687500, 0.04785156250, 0.02441406250, -0.06347656250, -0.05224609375, 0.26464843750, -0.02685546875, -0.09765625000, 0.13574218750, -0.34326171875, 0.16748046875, -0.35986328125, -0.23291015625, -0.16357421875, 0.16894531250, 0.42578125000, 0.18164062500, -0.11621093750, -0.01513671875, -0.10058593750, -0.31542968750, 0.27929687500, 0.26367187500, 0.31640625000, -0.07324218750, 0.11962890625, 0.35058593750, 0.31982421875, 0.33056640625, -0.18164062500, -0.13330078125, 0.17822265625, 0.49707031250, -0.13525390625, -0.09375000000, 0.06054687500, 0.04931640625, -0.06347656250, -0.05859375000, -0.20361328125, 0.10351562500, -0.02001953125, 0.05224609375, -0.47656250000, -0.14501953125, -0.05273437500, 0.00146484375, -0.04052734375, -0.28417968750, 0.40917968750, 0.07861328125, 0.07714843750, -0.23144531250, 0.24560546875, -0.19677734375, -0.17773437500, -0.02148437500, 0.30566406250, 0.14648437500, 0.27539062500, -0.19335937500};
#endif

#endif
