//Numpy array shape [64, 16]
//Min -0.700683593750
//Max 0.746582031250
//Number of zeros 0

#ifndef W15_H_
#define W15_H_

#ifndef __SYNTHESIS__
weight15_t w15[1024];
#else
weight15_t w15[1024] = {0.11718750000, -0.02490234375, -0.20751953125, -0.00927734375, -0.23437500000, -0.04687500000, 0.03076171875, 0.06835937500, 0.12255859375, -0.15234375000, -0.03662109375, -0.23388671875, 0.05273437500, 0.07861328125, -0.10888671875, 0.06201171875, -0.08154296875, -0.36083984375, -0.35791015625, 0.32568359375, -0.32714843750, 0.14208984375, -0.27490234375, -0.53613281250, 0.56787109375, -0.45507812500, -0.02636718750, -0.23535156250, 0.02978515625, -0.25439453125, -0.15771484375, 0.11865234375, 0.29199218750, 0.04003906250, 0.24267578125, -0.20654296875, 0.49560546875, -0.53759765625, 0.18945312500, 0.39697265625, -0.41552734375, -0.08154296875, 0.16943359375, 0.40722656250, -0.06738281250, -0.02001953125, 0.12597656250, -0.30566406250, -0.05664062500, -0.00585937500, 0.02099609375, -0.06005859375, 0.10839843750, -0.00341796875, 0.07763671875, -0.04296875000, -0.09814453125, 0.17675781250, -0.12597656250, 0.01660156250, -0.12597656250, 0.03222656250, 0.00781250000, 0.13037109375, -0.08984375000, -0.02929687500, 0.32080078125, 0.41455078125, -0.43652343750, 0.74658203125, -0.42285156250, 0.01171875000, 0.05908203125, 0.13818359375, 0.08691406250, -0.33203125000, 0.46289062500, -0.09082031250, 0.34033203125, -0.27539062500, -0.03710937500, -0.31689453125, -0.08642578125, 0.29101562500, -0.11279296875, -0.06591796875, -0.47412109375, 0.06103515625, -0.28125000000, -0.27050781250, 0.34472656250, 0.02685546875, -0.25000000000, -0.19580078125, -0.28369140625, -0.19921875000, -0.20556640625, 0.34472656250, 0.38427734375, 0.00878906250, 0.01513671875, 0.65185546875, -0.14746093750, -0.10351562500, 0.08740234375, 0.28417968750, -0.04541015625, -0.27587890625, 0.41064453125, -0.01953125000, 0.21533203125, -0.03759765625, 0.07519531250, -0.02978515625, 0.13134765625, -0.10449218750, -0.44677734375, 0.20068359375, -0.12695312500, -0.09130859375, 0.18603515625, -0.15527343750, 0.15380859375, -0.08056640625, 0.07861328125, 0.00537109375, 0.11376953125, -0.10058593750, -0.21337890625, 0.26757812500, -0.00683593750, 0.15380859375, 0.29931640625, -0.31884765625, 0.33007812500, -0.20849609375, 0.08203125000, 0.01220703125, -0.03955078125, 0.14404296875, -0.12158203125, 0.34033203125, -0.11865234375, 0.13281250000, -0.03320312500, -0.09375000000, -0.33496093750, 0.17529296875, 0.17724609375, -0.05810546875, -0.43603515625, 0.33544921875, 0.16308593750, 0.19482421875, 0.39941406250, 0.39746093750, -0.06347656250, 0.08740234375, -0.29394531250, 0.10107421875, -0.04736328125, 0.21435546875, 0.08935546875, -0.16308593750, -0.06250000000, -0.01367187500, 0.37939453125, -0.54150390625, 0.30273437500, -0.17968750000, -0.07812500000, -0.24316406250, -0.14257812500, 0.32128906250, -0.11962890625, 0.17236328125, -0.03906250000, -0.11718750000, -0.28320312500, 0.05029296875, 0.23486328125, -0.22314453125, 0.08251953125, 0.08544921875, 0.15380859375, 0.06835937500, -0.29003906250, -0.06201171875, 0.04443359375, -0.17480468750, -0.28417968750, 0.04052734375, 0.15966796875, -0.10400390625, 0.10449218750, -0.42236328125, -0.35937500000, 0.28710937500, 0.03466796875, 0.21826171875, -0.20605468750, 0.12744140625, 0.25976562500, -0.13671875000, 0.06396484375, -0.50830078125, 0.02783203125, -0.31591796875, 0.14892578125, 0.30029296875, -0.25292968750, -0.08740234375, 0.25390625000, 0.38525390625, -0.29248046875, -0.06005859375, 0.06494140625, 0.24609375000, 0.48046875000, 0.33544921875, -0.11376953125, 0.03857421875, -0.36572265625, 0.15576171875, 0.08007812500, -0.21923828125, 0.15283203125, -0.25830078125, -0.20605468750, -0.15332031250, -0.04736328125, -0.10644531250, -0.12011718750, -0.22949218750, -0.37255859375, -0.11132812500, 0.02490234375, -0.45068359375, 0.01806640625, -0.20068359375, -0.06250000000, -0.04882812500, 0.16943359375, 0.41357421875, -0.05468750000, 0.14013671875, -0.18408203125, -0.01416015625, -0.06201171875, 0.01904296875, 0.00341796875, -0.01660156250, 0.16308593750, 0.11376953125, 0.14404296875, -0.00292968750, -0.30810546875, 0.00048828125, -0.04150390625, 0.04833984375, 0.20751953125, -0.16699218750, -0.22363281250, 0.02441406250, 0.11767578125, 0.11230468750, -0.56640625000, 0.23535156250, 0.15380859375, -0.04296875000, -0.58105468750, 0.35009765625, 0.02734375000, 0.25195312500, -0.11523437500, -0.48925781250, -0.15673828125, 0.11035156250, -0.35449218750, -0.09619140625, 0.07812500000, 0.11523437500, 0.35400390625, 0.22412109375, -0.23681640625, -0.03955078125, -0.25390625000, -0.01855468750, -0.25048828125, -0.15771484375, 0.30859375000, 0.54296875000, 0.21191406250, -0.07763671875, -0.25439453125, 0.15673828125, 0.07714843750, 0.13378906250, -0.45605468750, 0.46679687500, 0.01367187500, 0.12890625000, -0.05273437500, 0.02246093750, -0.12500000000, -0.14062500000, -0.04052734375, -0.04589843750, -0.08056640625, 0.07031250000, 0.19482421875, 0.04541015625, -0.24804687500, 0.10058593750, 0.06982421875, -0.11035156250, -0.31445312500, -0.06152343750, -0.05029296875, -0.03613281250, 0.34667968750, -0.19042968750, -0.32812500000, -0.01074218750, -0.10302734375, -0.03417968750, -0.07275390625, -0.04638671875, -0.14990234375, -0.32470703125, 0.39160156250, -0.18945312500, -0.02246093750, 0.19873046875, 0.57617187500, -0.03125000000, -0.13232421875, 0.44873046875, 0.06201171875, -0.13085937500, -0.20458984375, -0.03369140625, -0.30224609375, -0.34814453125, 0.21044921875, -0.05419921875, 0.11132812500, 0.51074218750, 0.14208984375, -0.00097656250, 0.41259765625, -0.20263671875, 0.37646484375, -0.14843750000, -0.34228515625, 0.52197265625, 0.35058593750, 0.23339843750, 0.23046875000, -0.06152343750, -0.33349609375, -0.09472656250, 0.08886718750, -0.21875000000, -0.06298828125, 0.13378906250, 0.25048828125, -0.38964843750, -0.03222656250, -0.12207031250, 0.32958984375, -0.07177734375, 0.16357421875, -0.25292968750, 0.10009765625, -0.02539062500, 0.19824218750, -0.04296875000, -0.09375000000, 0.08544921875, 0.09814453125, 0.13720703125, -0.14941406250, 0.19482421875, -0.24023437500, 0.26660156250, -0.00830078125, 0.18847656250, -0.14843750000, 0.16650390625, 0.39013671875, -0.07080078125, -0.03271484375, 0.35449218750, 0.01855468750, 0.21191406250, -0.12207031250, -0.53271484375, -0.38427734375, -0.00097656250, -0.07714843750, 0.07275390625, -0.25244140625, -0.08154296875, -0.38574218750, -0.14843750000, 0.08056640625, 0.00146484375, 0.22753906250, 0.24023437500, -0.09863281250, 0.29687500000, -0.37695312500, -0.01806640625, 0.36425781250, -0.21875000000, -0.24121093750, -0.00195312500, 0.38085937500, 0.17480468750, 0.24609375000, 0.12500000000, 0.22216796875, -0.05371093750, -0.12939453125, -0.00781250000, 0.35693359375, -0.09765625000, 0.08789062500, 0.10400390625, -0.46044921875, 0.17187500000, 0.19335937500, 0.11035156250, -0.19726562500, -0.35205078125, -0.19824218750, 0.05419921875, 0.00634765625, 0.17187500000, -0.15917968750, 0.10986328125, -0.11621093750, -0.30566406250, 0.04296875000, -0.16748046875, 0.18017578125, -0.08935546875, 0.07177734375, -0.25537109375, 0.20556640625, -0.06250000000, 0.07031250000, -0.12060546875, -0.28662109375, -0.12255859375, 0.00390625000, -0.37402343750, 0.47900390625, 0.10400390625, 0.21484375000, 0.35986328125, 0.44189453125, -0.06201171875, -0.05078125000, 0.26318359375, 0.05224609375, 0.25488281250, -0.19335937500, -0.19970703125, 0.17089843750, -0.09472656250, 0.29492187500, -0.02148437500, 0.01367187500, 0.30810546875, -0.09082031250, 0.03076171875, 0.07763671875, -0.58642578125, 0.10058593750, -0.29931640625, 0.26171875000, -0.29541015625, -0.03125000000, -0.06835937500, -0.29687500000, 0.19726562500, 0.10986328125, -0.07958984375, 0.12548828125, -0.19726562500, 0.18359375000, 0.50341796875, 0.08056640625, 0.35107421875, 0.07226562500, 0.19384765625, 0.32080078125, 0.27832031250, 0.25585937500, -0.03076171875, 0.02050781250, -0.04541015625, 0.21240234375, -0.20458984375, -0.08349609375, 0.21533203125, -0.21093750000, -0.09277343750, -0.02636718750, -0.08837890625, 0.17919921875, 0.14062500000, -0.53515625000, -0.20458984375, 0.05371093750, 0.10498046875, 0.03369140625, 0.07128906250, 0.10546875000, -0.01611328125, -0.36083984375, -0.11083984375, 0.08642578125, -0.02978515625, -0.15527343750, -0.01416015625, -0.23681640625, -0.21826171875, -0.09716796875, 0.19189453125, 0.05175781250, -0.10839843750, 0.22412109375, 0.08740234375, 0.41650390625, 0.19433593750, 0.22460937500, -0.14550781250, 0.24707031250, 0.42041015625, -0.14697265625, -0.47998046875, 0.29101562500, 0.19921875000, -0.04931640625, 0.06103515625, 0.36718750000, 0.32617187500, -0.36279296875, 0.11035156250, 0.16357421875, 0.01367187500, -0.34960937500, 0.06250000000, -0.27539062500, -0.15576171875, -0.03857421875, 0.30957031250, -0.06982421875, -0.11572265625, -0.20068359375, -0.07861328125, -0.21826171875, -0.16113281250, -0.02246093750, -0.36230468750, -0.41845703125, 0.25732421875, 0.29687500000, 0.04150390625, 0.22314453125, -0.12011718750, 0.39306640625, -0.21826171875, -0.10791015625, -0.14697265625, 0.54443359375, 0.28027343750, 0.07666015625, 0.26611328125, -0.17626953125, -0.18652343750, 0.02001953125, -0.14990234375, 0.34716796875, 0.13525390625, -0.22216796875, 0.13427734375, 0.25585937500, -0.02880859375, -0.03662109375, -0.22607421875, 0.34423828125, -0.21972656250, 0.15185546875, 0.09130859375, -0.02880859375, 0.25634765625, 0.60595703125, 0.00683593750, 0.08300781250, 0.09326171875, -0.02880859375, 0.11328125000, -0.05273437500, -0.48046875000, -0.21240234375, 0.06689453125, 0.20068359375, 0.33056640625, 0.09912109375, -0.32958984375, -0.03417968750, -0.41699218750, -0.36376953125, -0.09375000000, 0.03417968750, 0.28125000000, -0.03955078125, -0.09814453125, 0.34423828125, 0.27685546875, -0.19970703125, 0.16455078125, -0.09375000000, 0.00976562500, 0.04345703125, -0.01025390625, 0.04101562500, 0.04345703125, 0.20751953125, -0.16552734375, -0.06542968750, -0.00244140625, -0.08984375000, 0.20898437500, -0.19140625000, 0.07910156250, -0.15039062500, -0.11083984375, -0.60986328125, 0.08496093750, -0.39550781250, -0.18115234375, 0.16894531250, -0.00439453125, -0.12988281250, 0.59765625000, -0.19873046875, -0.14257812500, 0.23437500000, -0.00146484375, -0.09423828125, 0.01708984375, 0.47949218750, -0.50244140625, 0.23339843750, -0.11181640625, 0.17285156250, 0.02978515625, 0.10351562500, -0.19384765625, 0.10400390625, 0.34179687500, -0.07519531250, 0.03710937500, -0.28125000000, 0.09228515625, -0.19482421875, 0.05224609375, -0.16601562500, 0.32177734375, -0.20410156250, 0.02880859375, -0.08154296875, -0.37695312500, -0.06738281250, 0.29833984375, 0.07177734375, 0.09277343750, 0.09619140625, -0.08789062500, 0.34423828125, -0.07421875000, 0.02050781250, 0.23486328125, 0.08642578125, -0.18603515625, 0.04150390625, 0.00390625000, -0.32861328125, 0.16796875000, -0.23193359375, -0.09228515625, -0.18457031250, -0.00048828125, 0.03759765625, -0.09667968750, 0.04296875000, 0.03222656250, 0.02050781250, -0.17187500000, -0.06933593750, 0.49121093750, 0.35253906250, 0.07763671875, 0.13964843750, 0.08544921875, 0.13574218750, 0.21875000000, 0.34765625000, -0.52294921875, 0.19433593750, 0.22460937500, -0.04199218750, -0.12207031250, -0.17724609375, -0.05566406250, 0.59912109375, -0.02246093750, 0.09179687500, 0.17675781250, 0.36718750000, -0.36035156250, -0.18603515625, -0.08935546875, 0.36621093750, 0.38867187500, -0.03173828125, -0.18261718750, -0.23046875000, -0.13183593750, -0.08984375000, 0.06103515625, 0.05517578125, 0.14501953125, -0.06103515625, 0.07519531250, -0.12597656250, 0.15966796875, 0.03857421875, 0.20556640625, -0.31787109375, -0.70068359375, -0.24755859375, 0.06445312500, -0.00537109375, 0.39550781250, -0.16259765625, -0.19140625000, -0.07763671875, 0.04394531250, -0.05029296875, 0.10449218750, 0.20507812500, -0.02929687500, 0.34082031250, 0.08154296875, 0.08300781250, -0.00585937500, -0.16455078125, -0.12158203125, -0.03417968750, -0.23339843750, 0.00976562500, -0.11376953125, 0.05566406250, -0.28906250000, -0.12988281250, -0.12646484375, -0.23730468750, 0.24218750000, -0.25195312500, -0.08154296875, -0.19921875000, 0.49560546875, -0.19677734375, 0.00585937500, 0.03369140625, 0.37402343750, -0.16064453125, -0.08154296875, 0.31103515625, 0.22363281250, 0.43652343750, 0.09082031250, -0.28613281250, -0.37500000000, -0.48339843750, -0.17480468750, 0.16357421875, 0.02392578125, -0.04101562500, -0.41113281250, -0.18847656250, 0.11914062500, -0.04589843750, -0.27148437500, -0.46923828125, -0.42578125000, -0.25439453125, -0.34472656250, 0.26074218750, 0.02050781250, 0.03027343750, -0.17529296875, -0.01416015625, -0.07861328125, -0.22949218750, 0.12890625000, -0.31494140625, 0.07226562500, -0.11230468750, -0.07275390625, 0.15625000000, 0.00781250000, 0.14941406250, -0.00341796875, -0.22265625000, 0.09863281250, -0.14306640625, 0.11914062500, 0.05126953125, 0.16357421875, 0.22998046875, 0.01464843750, 0.13281250000, 0.02246093750, 0.13574218750, 0.03320312500, 0.07910156250, 0.17041015625, 0.08349609375, -0.08496093750, 0.62158203125, -0.23730468750, -0.06054687500, 0.09619140625, 0.45410156250, -0.59960937500, 0.34570312500, -0.07324218750, 0.05566406250, -0.38232421875, 0.38085937500, -0.04003906250, -0.18408203125, 0.17236328125, 0.08203125000, 0.07031250000, 0.25244140625, -0.05908203125, -0.19921875000, -0.16357421875, -0.27392578125, -0.00292968750, -0.01123046875, -0.46484375000, -0.06201171875, 0.10351562500, -0.20898437500, -0.19824218750, -0.32177734375, -0.24658203125, 0.22460937500, -0.02343750000, 0.09033203125, 0.17138671875, 0.27880859375, 0.28515625000, 0.49755859375, -0.07031250000, 0.09570312500, -0.01367187500, 0.00976562500, -0.39697265625, 0.33251953125, 0.17285156250, 0.10888671875, 0.22656250000, -0.00195312500, 0.02490234375, 0.14013671875, -0.04980468750, -0.12451171875, -0.06054687500, 0.05957031250, -0.07714843750, -0.02978515625, 0.17382812500, 0.13867187500, 0.02001953125, -0.13183593750, 0.02246093750, 0.12060546875, 0.01757812500, 0.23291015625, 0.09033203125, -0.33447265625, 0.06298828125, 0.21679687500, 0.01904296875, 0.02099609375, 0.13427734375, -0.05908203125, 0.05859375000, -0.27197265625, 0.20068359375, -0.29101562500, 0.17333984375, -0.30468750000, 0.39062500000, -0.02343750000, -0.02636718750, 0.23583984375, -0.19531250000, -0.18896484375, -0.15478515625, -0.24169921875, 0.03857421875, -0.13232421875, -0.44531250000, -0.28125000000, -0.01855468750, -0.00830078125, -0.36279296875, 0.31445312500, -0.17675781250, 0.05761718750, 0.17089843750, -0.32666015625, 0.05566406250, 0.33154296875, 0.06835937500, 0.00683593750, 0.00634765625, -0.01611328125, 0.21386718750, -0.08447265625, 0.18310546875, -0.03857421875, 0.22509765625, -0.26904296875, 0.18505859375, 0.07958984375, -0.00195312500, -0.00683593750, -0.11816406250, -0.09765625000, -0.01660156250, 0.16210937500, 0.06591796875, -0.04980468750, -0.21875000000, -0.28271484375, 0.06591796875, 0.01416015625, 0.09716796875, 0.33007812500, 0.22216796875, 0.00244140625, -0.17578125000, 0.53906250000, 0.04052734375, 0.06738281250, -0.19677734375, 0.20605468750, -0.37207031250, 0.22216796875, -0.14550781250, 0.44482421875, -0.20068359375, -0.01904296875, -0.36376953125, -0.29150390625, -0.03613281250, -0.10351562500, 0.05664062500, 0.09277343750, -0.12402343750, -0.01660156250, 0.24560546875, -0.02099609375, 0.04736328125, 0.08886718750, -0.01611328125, -0.37060546875, 0.13476562500, -0.16064453125, -0.05126953125, 0.12500000000, 0.18115234375, -0.18896484375, 0.00683593750, 0.39257812500, -0.13769531250, 0.12695312500, -0.55322265625, -0.10253906250, -0.06103515625, -0.43554687500, 0.43701171875, 0.70703125000, -0.33837890625, -0.22265625000, -0.06835937500, 0.24462890625, -0.29492187500, 0.17285156250, 0.06298828125, -0.12304687500, 0.22900390625, 0.16259765625, -0.06835937500, -0.04785156250, -0.15771484375, 0.27832031250, 0.34179687500, 0.33251953125, -0.04101562500, 0.12597656250, 0.06542968750};
#endif

#endif
