//Numpy array shape [5, 8, 4]
//Min -0.527343750000
//Max 0.518066406250
//Number of zeros 1

#ifndef W8_H_
#define W8_H_

#ifndef __SYNTHESIS__
weight8_t w8[160];
#else
weight8_t w8[160] = {-0.06982421875, -0.13964843750, -0.12255859375, 0.03857421875, 0.12109375000, 0.24121093750, -0.07128906250, 0.02734375000, 0.27880859375, 0.40136718750, 0.12646484375, -0.09130859375, -0.10302734375, 0.27001953125, -0.32470703125, 0.38476562500, -0.06152343750, -0.01318359375, -0.18212890625, 0.04833984375, 0.30859375000, -0.01806640625, -0.13525390625, -0.05078125000, 0.08203125000, -0.00537109375, 0.19970703125, 0.05810546875, -0.12890625000, -0.07519531250, 0.15673828125, 0.27343750000, 0.12158203125, 0.08056640625, 0.13085937500, -0.11083984375, -0.03515625000, 0.09863281250, 0.08593750000, 0.11621093750, 0.03808593750, -0.05273437500, 0.03759765625, -0.21728515625, -0.16552734375, -0.01562500000, -0.01318359375, 0.02050781250, 0.17236328125, -0.14208984375, 0.36962890625, 0.01171875000, 0.14306640625, 0.18994140625, 0.03417968750, 0.08154296875, -0.10986328125, 0.13867187500, -0.52734375000, -0.12939453125, -0.14990234375, 0.09130859375, 0.30957031250, 0.10644531250, 0.02832031250, -0.05078125000, 0.13818359375, -0.02148437500, -0.18017578125, -0.15625000000, 0.27050781250, -0.01171875000, 0.16259765625, 0.03417968750, -0.11425781250, 0.11230468750, -0.02587890625, 0.01464843750, 0.09521484375, -0.01904296875, -0.12792968750, 0.10546875000, -0.27001953125, -0.15478515625, 0.06396484375, -0.34326171875, -0.00292968750, -0.00488281250, 0.09179687500, -0.23535156250, 0.51806640625, 0.17285156250, 0.01806640625, 0.06884765625, 0.03808593750, 0.33447265625, -0.15283203125, -0.01513671875, -0.32763671875, 0.19824218750, 0.16796875000, -0.06250000000, 0.13525390625, -0.23046875000, -0.10156250000, 0.10693359375, 0.14599609375, 0.06103515625, 0.15771484375, -0.15625000000, 0.26904296875, -0.28515625000, -0.00683593750, -0.05126953125, 0.10791015625, 0.24316406250, -0.22851562500, 0.28173828125, 0.15820312500, -0.46630859375, 0.09667968750, 0.16357421875, -0.16259765625, -0.24755859375, 0.12792968750, -0.26464843750, -0.24365234375, 0.05175781250, 0.15234375000, 0.04541015625, 0.34082031250, -0.16943359375, -0.08691406250, 0.01171875000, -0.26660156250, 0.17089843750, 0.04150390625, -0.19775390625, -0.06298828125, 0.15820312500, 0.02294921875, -0.19091796875, -0.27099609375, -0.15966796875, 0.02880859375, 0.01757812500, -0.02246093750, -0.21191406250, -0.27148437500, 0.00000000000, 0.13720703125, -0.28369140625, -0.08154296875, -0.12060546875, -0.11279296875, 0.12646484375, 0.21240234375, 0.21923828125, 0.13378906250, -0.25439453125};
#endif

#endif
